{
  "schema": 1,
  "kind": "linear",
  "action_vocab": [
    "wider",
    "deeper",
    "decompose",
    "stop",
    "escalate"
  ],
  "feature_names": [
    "score_mean",
    "score_max",
    "score_std",
    "n_children",
    "budget_remaining_frac",
    "depth",
    "steps_taken",
    "decomposability",
    "executor_stalled",
    "tool_error_rate",
    "attempts_done_frac",
    "difficulty"
  ],
  "policy": {
    "n_features": 12,
    "n_actions": 5,
    "W": [
      [
        0.0010713851253156919,
        -0.00112570537362716,
        0.005457234510790492,
        -0.9341761248104782,
        0.19704207940456409,
        -0.881381816610562,
        -0.923958232760106,
        0.4043309795643525,
        -0.0059967401412909975,
        -0.010783037916769283,
        -0.8897741867360036,
        -0.884110925974022
      ],
      [
        -0.019812288296215848,
        -0.0018643897405244989,
        -0.010616782860529469,
        -0.5632081295809166,
        0.450259560393311,
        -0.3036465027012247,
        -0.553460630732011,
        -0.2145039892882071,
        -0.0010952826199471363,
        0.011644047261689898,
        -0.3066195380835946,
        -0.29795589039701303
      ],
      [
        0.00769874184082605,
        0.0008011071367076724,
        -0.006335581290749121,
        0.9097839905604522,
        0.6393530274176776,
        0.8283173815028761,
        0.9090350294473358,
        0.368029313340756,
        -0.001356804320529259,
        0.0046087083080417176,
        0.8282702075693961,
        0.8294692704695553
      ],
      [
        -0.005571470729509922,
        -0.0011044768550386916,
        0.006680491372175139,
        0.5814496048392863,
        -1.304486902640714,
        0.41964294385531736,
        0.5801922380444966,
        -0.46442424540797816,
        0.0022535061672272053,
        -0.002675030959674645,
        0.4191665767587499,
        0.42344629506829623
      ],
      [
        0.015352273972308088,
        0.01120639572196782,
        0.00304534623998477,
        -0.004620096575227328,
        -0.006037411561090937,
        -0.04217506367004959,
        -0.005302165677441062,
        -0.06823582887601708,
        0.0036629981601931836,
        0.0059311899283474535,
        -0.05785931077975031,
        -0.053407651677670163
      ]
    ],
    "b": [
      3.2430476266637753,
      0.2355254773165625,
      0.5847966274095081,
      -2.187985902278916,
      -1.8753838291109306
    ],
    "mu": [
      0.0,
      0.0,
      0.0,
      0.5507246376811594,
      0.8820637681159421,
      0.3217391304347826,
      0.5507246376811594,
      0.20507246376811594,
      0.0,
      0.0,
      0.3217391304347826,
      0.6608695652173913
    ],
    "sigma": [
      1.0,
      1.0,
      1.0,
      0.9681332984645686,
      0.20359984068872486,
      0.46714351368915813,
      0.9681332984645686,
      0.3048098632262687,
      1.0,
      1.0,
      0.46714351368915813,
      0.23357175684457906
    ],
    "fitted": true
  },
  "meta": {
    "benchmark": "arithmetic-calibrated",
    "learner": "dpo",
    "n_traces": 264,
    "source": "traces/calib4_dpo_k3.jsonl"
  }
}