{
  "schema": 1,
  "kind": "linear",
  "action_vocab": [
    "wider",
    "deeper",
    "decompose",
    "stop",
    "escalate"
  ],
  "feature_names": [
    "score_mean",
    "score_max",
    "score_std",
    "n_children",
    "budget_remaining_frac",
    "depth",
    "steps_taken",
    "decomposability",
    "executor_stalled",
    "tool_error_rate",
    "attempts_done_frac",
    "difficulty"
  ],
  "policy": {
    "n_features": 12,
    "n_actions": 5,
    "W": [
      [
        0.0010713851253156919,
        -0.00112570537362716,
        0.005457234510790492,
        0.4240874397016554,
        0.40055370438160104,
        0.9186827419110275,
        0.43430533175202823,
        0.008070362459735239,
        -0.0059967401412909975,
        -0.010783037916769283,
        0.9102903717855857,
        0.9159536325475661
      ],
      [
        -0.019812288296215848,
        -0.0018643897405244989,
        -0.010616782860529469,
        -0.03537360578035504,
        0.021274925080796248,
        0.028512122007636535,
        -0.025626106931449302,
        0.008883570769623797,
        -0.0010952826199471363,
        0.011644047261689898,
        0.02553908662526666,
        0.034202734311847824
      ],
      [
        0.00769874184082605,
        0.0008011071367076724,
        -0.006335581290749121,
        -0.33829876752458704,
        -0.4918297868689802,
        -0.9951003688354736,
        -0.3390477286377021,
        -0.001782448146101505,
        -0.001356804320529259,
        0.0046087083080417176,
        -0.995147542768953,
        -0.9939484798687938
      ],
      [
        -0.005571470729509922,
        -0.0011044768550386916,
        0.006680491372175139,
        -0.028470558333649896,
        0.02694536119724733,
        0.029247229868055825,
        -0.029727925128439428,
        0.006657790033855046,
        0.0022535061672272053,
        -0.002675030959674645,
        0.028770862771487916,
        0.03305058108103462
      ],
      [
        0.015352273972308088,
        0.01120639572196782,
        0.00304534623998477,
        -0.032715263629948796,
        0.019186149223083315,
        0.039415217425111664,
        -0.03339733273216249,
        0.0033669542157936964,
        0.0036629981601931836,
        0.0059311899283474535,
        0.023730970315410896,
        0.028182629417491004
      ]
    ],
    "b": [
      0.4346292511709351,
      -1.7470473333151946,
      4.806240992981399,
      -1.7468916324625363,
      -1.7469312783746076
    ],
    "mu": [
      0.0,
      0.0,
      0.0,
      1.24,
      0.9291360000000002,
      0.52,
      1.24,
      0.2999999999999999,
      0.0,
      0.0,
      0.52,
      0.76
    ],
    "sigma": [
      1.0,
      1.0,
      1.0,
      1.504127654157053,
      0.08746043266402116,
      0.499599839871872,
      1.504127654157053,
      1.0,
      1.0,
      1.0,
      0.499599839871872,
      0.249799919935936
    ],
    "fitted": true
  },
  "meta": {
    "benchmark": "sql",
    "learner": "dpo",
    "n_traces": 36
  }
}